{
  "input_nodes": 5,
  "hidden_nodes": 8,
  "output_nodes": 1,
  "weights_ih": {
    "rows": 8,
    "cols": 5,
    "data": [
      [
        -0.9341680634436667,
        -0.6868941418396665,
        -0.690268666875646,
        -0.22705611718551136,
        -0.15451524029151642
      ],
      [
        0.8726465355779908,
        -0.6781016557032444,
        0.4702994631548673,
        0.630301724320609,
        -0.42300276254410035
      ],
      [
        0.7706569813272286,
        0.3421312643817936,
        0.6315404991496275,
        0.5499512852611121,
        0.6257962165383046
      ],
      [
        -0.3072994446360838,
        0.08232592235179864,
        -0.7988325179789593,
        0.865396329686492,
        -0.20745619324773973
      ],
      [
        0.8794807566047608,
        -0.41213414029245654,
        -0.11571165552820574,
        0.9295002564277346,
        0.5447799516595263
      ],
      [
        -0.5559703429895263,
        0.571722457580682,
        -0.6813899845850623,
        0.7414685926003742,
        0.04522012162160635
      ],
      [
        -0.4014680132564332,
        -0.4687741250979577,
        -0.7068949412262409,
        0.18116050280469537,
        0.49567775477696574
      ],
      [
        -0.6721463717783405,
        -0.665436014606429,
        0.9766825227968812,
        0.18834066039690872,
        0.3414307152153158
      ]
    ]
  },
  "weights_ho": {
    "rows": 1,
    "cols": 8,
    "data": [
      [
        -0.881425928912513,
        -0.3746264898848587,
        -0.7528610641190032,
        0.14429925596793172,
        0.8719164065197751,
        -0.8086589498286686,
        -0.22763515317419858,
        0.1555008199269421
      ]
    ]
  },
  "bias_h": {
    "rows": 8,
    "cols": 1,
    "data": [
      [
        -0.8193452755910438
      ],
      [
        -0.16279049799372267
      ],
      [
        0.14681558514018975
      ],
      [
        -0.92715885009099
      ],
      [
        -0.7109622110791063
      ],
      [
        -0.7319919710982132
      ],
      [
        -1.0267289142211897
      ],
      [
        -0.24328614283908534
      ]
    ]
  },
  "bias_o": {
    "rows": 1,
    "cols": 1,
    "data": [
      [
        0.6478804436231118
      ]
    ]
  },
  "learning_rate": 0.1,
  "activation_function": {}
}
