{
  "input_nodes": 5,
  "hidden_nodes": 8,
  "output_nodes": 1,
  "weights_ih": {
    "rows": 8,
    "cols": 5,
    "data": [
      [
        0.4458453579160261,
        0.7656392128804776,
        -1.126251191865412,
        0.29964547223257004,
        -0.1994312445345461
      ],
      [
        -0.2299923230340295,
        -0.18846390391456874,
        0.2740245963894714,
        -0.33630338720496217,
        0.3674581132838005
      ],
      [
        0.9808381633000842,
        0.3112104647852407,
        0.25323618360754635,
        -0.09416178128375716,
        0.05330860836697806
      ],
      [
        -0.508048890776948,
        0.13324209197674663,
        -0.40297178757745444,
        0.7187710018465343,
        -0.07421672158781267
      ],
      [
        0.39289778143118814,
        0.558435571969231,
        -0.1674895901445952,
        -0.17938464101658702,
        0.8722922391775315
      ],
      [
        -0.6159234305178941,
        0.05073866395523108,
        -0.8261929667926414,
        -0.8506844027105769,
        -0.6590960438197543
      ],
      [
        -0.6548395402244751,
        0.652708918163388,
        0.8677243583044438,
        -0.7732729040017869,
        0.10348198150715379
      ],
      [
        0.1386694136142529,
        0.911573503610916,
        1.0464553688063818,
        0.676457311618526,
        0.7143515519975393
      ]
    ]
  },
  "weights_ho": {
    "rows": 1,
    "cols": 8,
    "data": [
      [
        -0.4819053067963794,
        -0.57597004635766,
        0.38059553237593596,
        -0.8280671237114142,
        -0.08928251548150423,
        -1.1964317994839335,
        -0.8863378678486412,
        0.6579344288554257
      ]
    ]
  },
  "bias_h": {
    "rows": 8,
    "cols": 1,
    "data": [
      [
        1.0279403331330763
      ],
      [
        -0.7576861682760406
      ],
      [
        0.5644075142169892
      ],
      [
        0.09152060934915386
      ],
      [
        -0.9281069095033365
      ],
      [
        0.5970180908202282
      ],
      [
        -0.07485219829929163
      ],
      [
        -0.30192675175491007
      ]
    ]
  },
  "bias_o": {
    "rows": 1,
    "cols": 1,
    "data": [
      [
        1.0722836521674532
      ]
    ]
  },
  "learning_rate": 0.1,
  "activation_function": {}
}
